{"layers":[{"0":{},"1":{},"2":{},"3":{},"4":{},"5":{},"6":{},"7":{},"8":{},"9":{},"10":{},"11":{},"12":{},"13":{},"14":{},"15":{}},{"0":{"bias":0.19729517647306824,"weights":{"0":0.057284146681141235,"1":-0.02852907873548234,"2":-0.07978862869411289,"3":-0.09609603435741434,"4":-0.08944172681802559,"5":-0.09890634737775893,"6":0.14851365194536228,"7":-0.1532504870020296,"8":-0.17688375928363673,"9":-0.13128349254765515,"10":-0.10067759066937694,"11":0.03267398788135149,"12":-0.03831907220740463,"13":-0.012746673077475804,"14":-0.0910551017701841,"15":0.1084087369049476}},"1":{"bias":-0.0675059665365108,"weights":{"0":0.01138678609411284,"1":0.009773729376833231,"2":0.11102691056250424,"3":0.05297078999611595,"4":-0.16662678416287413,"5":0.002533927386638728,"6":0.03830836149521577,"7":0.04859780124102323,"8":-0.18146641912272563,"9":0.017242846140268168,"10":-0.1469117743596074,"11":0.18687087253495063,"12":-0.04100595756296264,"13":0.07359962197658801,"14":0.07237392734020262,"15":0.0032444099865606047}},"2":{"bias":-0.07941333510103132,"weights":{"0":-0.03646122115820091,"1":0.023430915430418652,"2":0.184447418428329,"3":0.10137641243571124,"4":0.17346307968092792,"5":0.08629746659241905,"6":-0.17485138152130691,"7":-0.15303396411157336,"8":0.03647186876049236,"9":-0.1421239184030513,"10":-0.08976802790744308,"11":0.11660025007578785,"12":0.05650252456375493,"13":0.12206815756555994,"14":0.02776926560631853,"15":0.047330845002341734}},"3":{"bias":0.2326846996715154,"weights":{"0":0.17991903798174222,"1":0.09736903538652715,"2":0.030012139794073057,"3":-0.17243234313705177,"4":-0.05881153095471241,"5":-0.10249173341697942,"6":0.10073130777559665,"7":-0.18442398502631738,"8":-0.022503286372342623,"9":-0.15118793960269428,"10":-0.07181722091734898,"11":0.03879533185502107,"12":-0.16612786105895433,"13":-0.04632703960133081,"14":0.1541129671938964,"15":0.04071357500352899}},"4":{"bias":0.06001891333222364,"weights":{"0":0.182540237585282,"1":-0.030425722845527622,"2":0.1530890651653915,"3":0.024523563035106874,"4":-0.1431388948620947,"5":0.16511064594187272,"6":0.16207674918387516,"7":0.0832345192693184,"8":-0.13797216101410376,"9":0.023941407529869282,"10":-0.10324589853411781,"11":-0.1337450560400064,"12":-0.0034922064034469645,"13":-0.18312225333472879,"14":0.03879900787771534,"15":-0.16929574347609483}},"5":{"bias":0.00904545671193075,"weights":{"0":0.004427760654666184,"1":-0.06710020817588136,"2":-0.02181977872222277,"3":0.028612957069257795,"4":-0.1738293340634725,"5":-0.12063598903164173,"6":0.1471115299739389,"7":-0.07168562649340951,"8":0.09198710002633882,"9":-0.12072391937683909,"10":-0.07479401831561845,"11":-0.07242104980499167,"12":0.013869630120788722,"13":0.012465666552772177,"14":0.12414848943250373,"15":-0.17600050219389363}},"6":{"bias":-0.15475015232932687,"weights":{"0":0.03419644988359576,"1":-0.11151744820423111,"2":0.0023646121878332436,"3":-0.17585242724239192,"4":-0.09518391793172042,"5":0.11989317865801656,"6":0.020372374519195394,"7":0.07293663548690438,"8":-0.17876423789833543,"9":-0.07510005857377436,"10":-0.037195863866816344,"11":0.0786309776101697,"12":0.11318888699857782,"13":0.1305737342551986,"14":0.12055635197905566,"15":-0.1878636171074196}},"7":{"bias":-0.050804825567463324,"weights":{"0":-0.1293010763670129,"1":-0.00569528195793522,"2":-0.01615223763212622,"3":-0.05486932283149597,"4":-0.03872796078014655,"5":0.17400837014553322,"6":-0.054504755402320575,"7":-0.05640158859791379,"8":0.012446932666216427,"9":0.05844052158444477,"10":0.08058844163074397,"11":-0.08706162280003432,"12":0.1814536816940528,"13":0.10958392608558574,"14":-0.18260657539408193,"15":-0.16118861463075632}},"8":{"bias":-0.06970402142359718,"weights":{"0":-0.0018406210528611419,"1":-0.10566991037908478,"2":-0.10180560379482806,"3":-0.0816264468892327,"4":-0.04081141202762668,"5":-0.06019638497247586,"6":0.04972062645008924,"7":-0.11535896247988645,"8":0.0036547161489907014,"9":0.06251983102827044,"10":0.15200366974403853,"11":0.17029232210539705,"12":-0.18341159827946749,"13":-0.17768424158222199,"14":0.1335693418060954,"15":-0.09281681214399795}},"9":{"bias":0.1189022933038509,"weights":{"0":-0.08284122188880659,"1":0.11153875027566887,"2":-0.17648112126706048,"3":-0.008031321418181586,"4":-0.0009119925923682737,"5":0.02410603611021683,"6":-0.02102320842570427,"7":-0.1356066301581756,"8":-0.024965916601609323,"9":-0.033043488017765944,"10":0.04422803066402185,"11":-0.17767542457472352,"12":-0.11930602821623815,"13":0.14311065124756436,"14":-0.1279786089344311,"15":-0.18551565466430336}},"10":{"bias":0.13347665094743244,"weights":{"0":0.07969006225081725,"1":0.11067029416405623,"2":-0.07990818534009086,"3":0.07459352371705312,"4":0.12930213612350408,"5":-0.037404292913395074,"6":-0.08425194761979492,"7":0.029095776599948147,"8":-0.040987954142917685,"9":-0.06369861949715089,"10":-0.11734562000825369,"11":0.12493478390480034,"12":0.1375866498413307,"13":-0.12871598851596847,"14":-0.17541238337887674,"15":0.009931304464402175}},"11":{"bias":0.06538673917273337,"weights":{"0":-0.07397971311154185,"1":0.1465143791528299,"2":0.18353498279300925,"3":0.12261374880747329,"4":-0.1597565767750155,"5":-0.10728579959160253,"6":-0.12903637345674152,"7":-0.18264265960703258,"8":-0.041133410271540806,"9":0.05633218756260446,"10":0.09949837283701848,"11":0.09146662447016449,"12":0.18639009948638074,"13":-0.15265798701444658,"14":-0.1479557190905086,"15":0.11890177685345706}},"12":{"bias":0.047946726566998124,"weights":{"0":0.11480059487622267,"1":0.04136753823786541,"2":0.07737458819621658,"3":0.053286429324873055,"4":-0.15340749001753393,"5":0.12468456914297148,"6":0.13175094691379857,"7":-0.1279657417596918,"8":-0.1704371021543511,"9":-0.18173594651324718,"10":-0.16934781213601538,"11":-0.16754070770426244,"12":0.16018483927928184,"13":0.03939264631946904,"14":0.1496183462891402,"15":-0.07689826846883073}},"13":{"bias":-0.029261421982296063,"weights":{"0":0.10220976408253883,"1":0.06862620308595455,"2":0.16477528754270174,"3":0.19851647454255492,"4":0.08179490614300115,"5":0.006969226156390607,"6":0.19438700186820643,"7":0.13231117465460576,"8":-0.12663349575699462,"9":0.08739945614855,"10":0.10524205989034963,"11":0.00037090912579864987,"12":-0.07405505777284975,"13":-0.19933250439689645,"14":0.05726186514676739,"15":-0.13636303044608566}},"14":{"bias":0.06692367038493505,"weights":{"0":0.08355567256872114,"1":0.006237034728038999,"2":0.18827308137870133,"3":-0.020493983611614305,"4":-0.18193217028998682,"5":0.09866776290818567,"6":-0.1477976724771639,"7":0.12145093211598408,"8":-0.0658055790290256,"9":-0.02857457076359544,"10":-0.17846590308555413,"11":0.10579000114882266,"12":0.16871296712253317,"13":0.11754916277359591,"14":-0.1564489797520477,"15":0.00571271796055344}},"15":{"bias":0.08371347016332081,"weights":{"0":-0.15866318048950254,"1":-0.027053549691191843,"2":0.10590108921414874,"3":0.19058098642662186,"4":0.127935628561111,"5":-0.1501404821320998,"6":-0.15831402392228236,"7":-0.11332997892063218,"8":0.1916935580092489,"9":-0.006938550788855317,"10":0.037664085094689714,"11":-0.17617754179528786,"12":-0.1079225825554673,"13":0.03458724265265442,"14":0.17993648963653275,"15":-0.027351240607435805}},"16":{"bias":-0.15675090321228097,"weights":{"0":0.16806228199669018,"1":-0.14170549642795888,"2":-0.04118171590115115,"3":-0.16390905180437396,"4":-0.048823294821530215,"5":-0.17719367158407898,"6":-0.1344058638205286,"7":-0.03177868900027669,"8":-0.12754661372505965,"9":0.16797256421186577,"10":0.12953582207801728,"11":-0.024175653662280076,"12":-0.1112232718706976,"13":0.01831222350654255,"14":0.013398993567027173,"15":-0.17789194054220048}},"17":{"bias":-0.08666835954673094,"weights":{"0":-0.05930922719396533,"1":0.12751268470963453,"2":0.16829227509210712,"3":0.17712505523467317,"4":0.05539031911655672,"5":0.07327955933488661,"6":0.10453897403432526,"7":0.00806544936895008,"8":0.13661240157836854,"9":-0.07144694388301326,"10":-0.1103636043183845,"11":0.10293261036246087,"12":-0.09175101207287005,"13":0.19840158407587113,"14":-0.14632799431870563,"15":0.16247358612657992}},"18":{"bias":-0.0643298715581428,"weights":{"0":-0.15899816912227888,"1":0.07771154600488797,"2":-0.10115129946477946,"3":-0.09681352073322591,"4":0.0835221785052467,"5":0.14808330780664797,"6":0.06266628665936108,"7":-0.10796559124880721,"8":0.12047811559869367,"9":-0.020607174048826442,"10":0.014685503026246759,"11":0.13435080547289996,"12":-0.1258836011260141,"13":0.11280615341042326,"14":-0.12494603916307866,"15":0.05447223701765911}},"19":{"bias":0.018716543302783363,"weights":{"0":-0.051901487810166576,"1":-0.038723704216085154,"2":-0.02034339961307851,"3":-0.061806633464334404,"4":-0.16049275038275138,"5":0.12314238157890148,"6":0.024338500184567388,"7":-0.148315739067367,"8":-0.03987604045252763,"9":-0.18689416002485082,"10":-0.18025224783392535,"11":0.17384096501272397,"12":0.15048038113423218,"13":-0.17433222436592208,"14":-0.1993791453336052,"15":-0.10045709352292262}},"20":{"bias":-0.017287647523636526,"weights":{"0":-0.08276162608661412,"1":0.08047205554687589,"2":0.1545066267077231,"3":0.18123917169304748,"4":-0.15448885034475004,"5":0.1311636553145273,"6":0.09218491288311152,"7":0.04416737608660326,"8":0.02558338300367597,"9":-0.051025393230660715,"10":-0.1076927392543456,"11":0.14033125615998213,"12":0.0783727118587022,"13":-0.1119121374669174,"14":0.021027341426549596,"15":0.025590579584725052}},"21":{"bias":0.10946708132911491,"weights":{"0":-0.17864710157038466,"1":0.14230143090113725,"2":-0.17796755061208833,"3":-0.18962170037314988,"4":-0.19362437314101805,"5":0.01670017076829036,"6":0.10050043629511994,"7":0.15973806098413917,"8":-0.16695119650616635,"9":0.03760779064705772,"10":-0.19186694444631258,"11":-0.08792752000212414,"12":-0.15959014008375624,"13":0.10105318378810976,"14":0.05494997290414734,"15":0.021934177893138534}},"22":{"bias":0.024466640548607293,"weights":{"0":0.02944780469786732,"1":-0.054181633083721495,"2":-0.18564109076235688,"3":0.04660230472659577,"4":0.15993472865236047,"5":0.09368003059091971,"6":-0.08364199676526717,"7":-0.00928239582273171,"8":-0.03858051633695531,"9":0.09131555140743186,"10":0.04812402530443947,"11":-0.15928077148249659,"12":0.08758461624332446,"13":0.009331521362359952,"14":0.15792540859278995,"15":-0.032998233841711376}},"23":{"bias":0.1221209680529392,"weights":{"0":0.13168479209395578,"1":-0.05933108220537233,"2":0.13982984470328844,"3":0.09064961819889998,"4":0.19208928627764357,"5":-0.040050577541773213,"6":0.10637930008353827,"7":-0.08102272584053143,"8":-0.10381674946744071,"9":-0.02371303020412178,"10":0.1884542199694386,"11":0.0891484164884925,"12":-0.19792098085175938,"13":0.0891397160781848,"14":0.12224669700811379,"15":0.015452478316407506}},"24":{"bias":-0.0905028893358022,"weights":{"0":-0.05192169825047961,"1":-0.09572885650555481,"2":0.11679064254949467,"3":0.07955158321330578,"4":0.11343291810489832,"5":-0.12435805800691084,"6":-0.03853155510535184,"7":0.09569739169749684,"8":-0.13423883503512538,"9":0.07867168837167969,"10":-0.04469385872653822,"11":0.16806109855053844,"12":-0.02536625022387369,"13":0.17916264517534344,"14":-0.05926158322345895,"15":-0.16434800632466479}},"25":{"bias":-0.061658506411833174,"weights":{"0":0.14870312640971847,"1":0.02051362571860075,"2":-0.07022253076823967,"3":-0.09740272131468192,"4":0.15741948330964958,"5":0.1591146021741433,"6":-0.04825234926049975,"7":-0.11488982124020877,"8":0.15448411657963138,"9":0.17396050889709272,"10":0.13981619409844248,"11":0.044189329333038395,"12":0.03886634180948168,"13":-0.1348442887641005,"14":0.054107102608454194,"15":-0.09549984593752439}},"26":{"bias":0.11743307679632427,"weights":{"0":0.13354463651286727,"1":0.11668186045242482,"2":-0.05923529477693929,"3":-0.17319099376856237,"4":-0.006647851110192346,"5":-0.11548199457624349,"6":0.03617281032035078,"7":-0.08024288702211252,"8":0.12452524822408591,"9":-0.05914540790173343,"10":0.19040680725083953,"11":0.1312047816586475,"12":0.057531873625077765,"13":-0.048427786883694396,"14":-0.03815758115008226,"15":0.09228776217040989}},"27":{"bias":-0.046000542903837635,"weights":{"0":-0.07915572644222335,"1":-0.1566429064803737,"2":-0.13926341759884023,"3":-0.09686042341645314,"4":-0.08476241518663222,"5":0.17861837756514792,"6":-0.17889877111485356,"7":-0.04349425587302646,"8":-0.09973613608896943,"9":0.016357292074610223,"10":0.020425500814994238,"11":0.07089375488585176,"12":0.030971070626135612,"13":-0.10240509264182056,"14":-0.08975480625010575,"15":-0.10502871285992074}},"28":{"bias":0.06795675211005181,"weights":{"0":0.1515676640346071,"1":0.11169562072588585,"2":0.13768744021631957,"3":0.014547203433286176,"4":0.05082845258630664,"5":-0.056744098963463836,"6":0.0009757266852584486,"7":-0.13839021644296087,"8":-0.048412403313455615,"9":-0.18608222781075784,"10":0.10175571019162785,"11":-0.12171742800024568,"12":0.027437336282457533,"13":-0.08077128855742025,"14":-0.04640927244232046,"15":0.1789790637393495}},"29":{"bias":-0.1985469211539851,"weights":{"0":-0.04371842055543269,"1":-0.154434737863296,"2":-0.04415719034140433,"3":-0.054466851089750135,"4":-0.17405671450763638,"5":-0.1588675145522519,"6":0.1211833819712437,"7":0.11228654732046228,"8":-0.019706057430902667,"9":-0.07640112000051523,"10":0.08408310725574401,"11":-0.18068574233879708,"12":0.05198029921288363,"13":0.1400124075271352,"14":0.1185363764986707,"15":0.08025723056743882}},"30":{"bias":0.17264709879831372,"weights":{"0":-0.12077325935835186,"1":0.08064610950758161,"2":0.17828615601643766,"3":-0.062080697192648776,"4":0.07605723164216174,"5":0.017726408240900233,"6":0.19629641267115008,"7":-0.044421916051753815,"8":-0.06396982389191852,"9":0.03497520514157014,"10":-0.1487381939069623,"11":-0.020913839970784727,"12":-0.17626257355108943,"13":-0.17897314125777064,"14":-0.11351089154643122,"15":-0.07147763883067514}},"31":{"bias":-0.04896819040071627,"weights":{"0":0.06226734896997743,"1":-0.013790518109050996,"2":-0.08363953468359697,"3":-0.10465463803024859,"4":0.07295375623417799,"5":0.09307327632198101,"6":-0.03296949729083805,"7":-0.09120163995894275,"8":-0.17393317525325394,"9":0.15478084793783248,"10":0.10608321995543137,"11":-0.09647890237479445,"12":0.04271164659350032,"13":-0.1989248424285915,"14":-0.009813391903506075,"15":0.19834437318467818}},"32":{"bias":0.16727944095113945,"weights":{"0":0.05452075750730284,"1":-0.01859101959635328,"2":-0.11048188445046668,"3":-0.140813624825323,"4":-0.040367990244054255,"5":0.092823662160458,"6":-0.0699725019833524,"7":0.02147512848271922,"8":-0.10951128457311836,"9":0.096856252177321,"10":0.1529275067116087,"11":0.04389462223968667,"12":0.1400541983949619,"13":-0.1818428820774142,"14":0.13273921669957672,"15":0.17070819296204356}},"33":{"bias":0.12423659906806551,"weights":{"0":-0.02783675632720494,"1":-0.18958011802692848,"2":0.11741850625436992,"3":0.08998074212771284,"4":-0.02664719211114457,"5":0.019838065433697923,"6":-0.07099496604680802,"7":-0.11279352078071601,"8":-0.02511415837846446,"9":-0.09857012025538815,"10":-0.10908722628739952,"11":0.12139363803082914,"12":0.11333850401604037,"13":0.1586044880715135,"14":0.1430884778138417,"15":0.10819259258556448}},"34":{"bias":0.02190326115755715,"weights":{"0":-0.11532731156711967,"1":-0.11085302840161253,"2":0.17316200679032046,"3":-0.14451836400280701,"4":0.03359032009303607,"5":-0.027813635251361876,"6":-0.15380800208994475,"7":0.08052129984637123,"8":-0.17305110797368173,"9":-0.025557127997447606,"10":-0.1176027156510123,"11":-0.06502089951577462,"12":-0.02426797712916294,"13":0.05005993668587587,"14":0.1306440874610339,"15":0.09226265739838208}},"35":{"bias":-0.1340439643213343,"weights":{"0":-0.05032420574918068,"1":-0.11898174506180804,"2":0.08969792266943276,"3":0.18190045076184191,"4":-0.07160285888815345,"5":0.11887017143444906,"6":-0.18883956150053183,"7":0.1187961849676145,"8":-0.13684951138125034,"9":0.14565237949543072,"10":0.06823217904486478,"11":0.006305126162550013,"12":-0.13342193829362364,"13":0.1708106185519247,"14":0.10066827359367816,"15":0.04188859678301183}},"36":{"bias":0.18529074892635045,"weights":{"0":0.17649942995426254,"1":0.10470812036335664,"2":-0.18938466458919415,"3":-0.09975340209532986,"4":-0.16373814657695981,"5":-0.11444863966098541,"6":0.0966471800939371,"7":-0.15196239164239358,"8":-0.02591624906737722,"9":0.19167352817943858,"10":-0.05656767933417546,"11":-0.009049065895006347,"12":0.08591476881862188,"13":0.11520026662216877,"14":-0.05782946476990211,"15":0.16667451895784324}},"37":{"bias":0.1770694020882642,"weights":{"0":0.1701206175162861,"1":0.07478207026365141,"2":0.1679609523695666,"3":-0.06499825795389218,"4":0.045711784071813144,"5":-0.13585415838086437,"6":0.16516791011814663,"7":-0.004262009753808287,"8":-0.06885711417478117,"9":-0.06110857026411015,"10":-0.12023721531756046,"11":0.08853919159398024,"12":-0.09752211364192631,"13":-0.028905792116445762,"14":0.013132031363334082,"15":0.17563707628025915}},"38":{"bias":-0.11102865992936883,"weights":{"0":0.16622535356807927,"1":-0.04584905256622305,"2":-0.17026495316844373,"3":0.13609747573532271,"4":-0.16846275043019304,"5":-0.19561373944610147,"6":0.11972857899279611,"7":-0.12565666808104478,"8":-0.13679586071786262,"9":0.00243857455778112,"10":0.011209000710986586,"11":0.02952165301265424,"12":0.053293376472124565,"13":0.12171107378043954,"14":0.041794465260494004,"15":0.13729573451754848}},"39":{"bias":0.027057194954115384,"weights":{"0":0.001397118163009729,"1":-0.1560255357548073,"2":-0.19172515087919242,"3":-0.11614572005423537,"4":-0.14426065335873778,"5":0.06022760705402755,"6":-0.08495052326620216,"7":-0.03500732404094736,"8":0.11500508289232933,"9":-0.004735166025651323,"10":0.10150277890308887,"11":-0.18810537412166484,"12":-0.19579102997283457,"13":0.07989355013995843,"14":0.1325140203821895,"15":-0.1713925669345981}},"40":{"bias":0.07870760608244479,"weights":{"0":0.12014685072221318,"1":-0.17240031425950805,"2":0.15186344495732537,"3":-0.004620170071455925,"4":-0.19703603338088357,"5":0.03960855052667204,"6":0.14874477611362694,"7":0.03985830328424069,"8":0.1390362766409704,"9":-0.0641717236359257,"10":-0.13374551885678815,"11":-0.06659409065677119,"12":-0.08705700185150173,"13":0.19618772250451177,"14":-0.05327809016413926,"15":-0.004890386599781375}},"41":{"bias":-0.0859814826759713,"weights":{"0":-0.07306014485666225,"1":0.07181452242993917,"2":0.04587250813153713,"3":0.0020522256019298367,"4":0.0030681753533127994,"5":0.1605240030831378,"6":0.0441561414450989,"7":-0.1130073923351017,"8":0.07558051127104931,"9":0.10422418425542343,"10":-0.13507421274641826,"11":0.11303779881761943,"12":0.08274008302723725,"13":-0.06920396130930433,"14":0.08961216717776098,"15":-0.10984678587209162}},"42":{"bias":-0.04846510945352129,"weights":{"0":-0.04615917332197713,"1":-0.11219072522492116,"2":0.1674681952451089,"3":0.048986830377396505,"4":0.1924514384076,"5":0.044922967813866455,"6":-0.05137088341246418,"7":-0.021969773931545016,"8":-0.13218839867413368,"9":0.18038275490647715,"10":-0.07160982693764527,"11":0.18384518407893016,"12":0.06617210994325771,"13":-0.13580102555631743,"14":-0.10900250772670211,"15":-0.09486824420405067}},"43":{"bias":0.06467737227958435,"weights":{"0":0.11502460429869633,"1":-0.003178811994115626,"2":-0.10939310471010756,"3":-0.10731874335837005,"4":0.034050327174025584,"5":-0.1181331368377313,"6":-0.06780598542698942,"7":-0.016486883653527438,"8":0.07251274610588511,"9":-0.1730534373255921,"10":0.00009348936853176717,"11":0.057411673622761845,"12":0.16806926967007704,"13":-0.11808043915390434,"14":-0.17093443190367164,"15":0.09865312290477889}},"44":{"bias":-0.0685424358828699,"weights":{"0":0.09761183601814448,"1":0.12429616897907288,"2":0.1523207430895094,"3":0.18223382795523085,"4":-0.03155373103359191,"5":0.11520338314035226,"6":-0.04446646628944955,"7":-0.011507413262205224,"8":0.06407939397350501,"9":-0.017014758568489788,"10":-0.1610730842467704,"11":0.0518495349012786,"12":-0.1408547011425393,"13":0.17324137119438165,"14":0.03158199596960935,"15":0.19545489124799917}},"45":{"bias":-0.10451573146924538,"weights":{"0":0.19623527009889316,"1":-0.11499259885834234,"2":-0.15699539067808319,"3":0.07051070767049229,"4":-0.07756310801809559,"5":-0.13232986639994354,"6":0.1391123866093816,"7":0.19346369575884084,"8":-0.04874919659150464,"9":-0.022850107250193746,"10":-0.16383040240304234,"11":0.038881985481233866,"12":-0.0534380055413116,"13":0.018778266470004492,"14":-0.14520484007560275,"15":0.15017651473671}},"46":{"bias":0.14680578512429013,"weights":{"0":-0.09071922294033534,"1":0.16678513996809965,"2":-0.11997750405232635,"3":0.06421328369348007,"4":0.006381869760680686,"5":-0.17313120270915025,"6":0.15966458270775674,"7":-0.009465755209033967,"8":0.19974030875079984,"9":0.022783873810410166,"10":0.12147909921002216,"11":0.0000020768086299856978,"12":-0.11225072757979643,"13":0.032324116532188425,"14":0.02917057916548841,"15":0.07412279627971693}},"47":{"bias":-0.0476861811589276,"weights":{"0":-0.16746904770964416,"1":0.050067349469287904,"2":0.06284991122377406,"3":-0.045170202675177844,"4":-0.13565501681699638,"5":0.05301304427347596,"6":-0.1431621094466292,"7":0.12693784212654705,"8":0.14477842833675625,"9":-0.17904746489067405,"10":0.163657925926276,"11":0.12919006255087617,"12":-0.1595020929820055,"13":-0.15582506102189275,"14":0.12270907492978728,"15":0.05128669210114254}}},{"0":{"bias":-0.3042940272697939,"weights":{"0":-0.43401114728840406,"1":-0.37789334508853184,"2":-0.13420538104245874,"3":-0.5067418999178576,"4":-0.44493287790415803,"5":-0.33819553520217305,"6":-0.09223046932295126,"7":-0.16880216486871477,"8":-0.3742684606179866,"9":-0.20610826898975385,"10":-0.12035840503437147,"11":-0.37179596077274957,"12":-0.4229565811373486,"13":-0.12174332326455121,"14":-0.4364263255330189,"15":-0.3023380435550433,"16":-0.0692270339289139,"17":-0.11175100856639084,"18":-0.10170524121955413,"19":-0.19590506166457824,"20":-0.10166241438256955,"21":-0.36139613441734536,"22":-0.15191486597444898,"23":-0.36277215451225125,"24":-0.09934162939308801,"25":-0.09710545832813722,"26":-0.3050990937187745,"27":-0.44089533609874537,"28":-0.11316574282777447,"29":-0.1184142639901706,"30":-0.3440643735065192,"31":-0.20481276569059487,"32":-0.30570321977477094,"33":-0.2449871535071939,"34":-0.43921333192696466,"35":-0.2377859611529592,"36":-0.18174729864396813,"37":-0.15890522467179155,"38":-0.2656600194720269,"39":-0.12248306334231845,"40":-0.477415589940972,"41":-0.26983603204527473,"42":-0.2578960480447826,"43":-0.3577078074238988,"44":-0.29062178904047065,"45":-0.44681298753561494,"46":-0.334556689175847,"47":-0.37981307905672285}}}],"outputLookup":false,"inputLookup":false}